<?xml version="1.0" encoding="UTF-8" standalone="yes"?>
<PMML xmlns="http://www.dmg.org/PMML-4_4" xmlns:data="http://jpmml.org/jpmml-model/InlineTable" version="4.4">
	<Header>
		<Application name="SkLearn2PMML package" version="0.112.1.post1"/>
		<Timestamp>2025-02-05T17:22:22Z</Timestamp>
	</Header>
	<MiningBuildTask>
		<Extension name="repr">PMMLPipeline(steps=[('classifier', RandomForestClassifier(max_depth=16, n_estimators=20))])</Extension>
	</MiningBuildTask>
	<DataDictionary>
		<DataField name="y" optype="categorical" dataType="string">
			<Value value="BENIGN"/>
			<Value value="Bot"/>
			<Value value="Brute Force"/>
			<Value value="DDoS"/>
			<Value value="DoS"/>
			<Value value="Port Scan"/>
			<Value value="Web Attack"/>
		</DataField>
		<DataField name="Total Length of Fwd Packets" optype="continuous" dataType="float"/>
		<DataField name="Fwd Packet Length Max" optype="continuous" dataType="float"/>
		<DataField name="Fwd Packet Length Mean" optype="continuous" dataType="float"/>
		<DataField name="Bwd Packet Length Max" optype="continuous" dataType="float"/>
		<DataField name="Bwd Packet Length Mean" optype="continuous" dataType="float"/>
		<DataField name="Bwd Header Length" optype="continuous" dataType="float"/>
		<DataField name="Max Packet Length" optype="continuous" dataType="float"/>
		<DataField name="Packet Length Mean" optype="continuous" dataType="float"/>
		<DataField name="Packet Length Std" optype="continuous" dataType="float"/>
		<DataField name="Average Packet Size" optype="continuous" dataType="float"/>
		<DataField name="Avg Fwd Segment Size" optype="continuous" dataType="float"/>
		<DataField name="Avg Bwd Segment Size" optype="continuous" dataType="float"/>
		<DataField name="Subflow Fwd Bytes" optype="continuous" dataType="float"/>
		<DataField name="Init_Win_bytes_backward" optype="continuous" dataType="float"/>
	</DataDictionary>
	<MiningModel functionName="classification" algorithmName="sklearn.ensemble._forest.RandomForestClassifier">
		<MiningSchema>
			<MiningField name="y" usageType="target"/>
			<MiningField name="Bwd Packet Length Max"/>
			<MiningField name="Max Packet Length"/>
			<MiningField name="Init_Win_bytes_backward"/>
			<MiningField name="Bwd Header Length"/>
			<MiningField name="Total Length of Fwd Packets"/>
			<MiningField name="Packet Length Std"/>
			<MiningField name="Subflow Fwd Bytes"/>
			<MiningField name="Packet Length Mean"/>
			<MiningField name="Avg Fwd Segment Size"/>
			<MiningField name="Average Packet Size"/>
			<MiningField name="Fwd Packet Length Mean"/>
			<MiningField name="Fwd Packet Length Max"/>
			<MiningField name="Avg Bwd Segment Size"/>
			<MiningField name="Bwd Packet Length Mean"/>
		</MiningSchema>
		<Output>
			<OutputField name="probability(BENIGN)" optype="continuous" dataType="double" feature="probability" value="BENIGN"/>
			<OutputField name="probability(Bot)" optype="continuous" dataType="double" feature="probability" value="Bot"/>
			<OutputField name="probability(Brute Force)" optype="continuous" dataType="double" feature="probability" value="Brute Force"/>
			<OutputField name="probability(DDoS)" optype="continuous" dataType="double" feature="probability" value="DDoS"/>
			<OutputField name="probability(DoS)" optype="continuous" dataType="double" feature="probability" value="DoS"/>
			<OutputField name="probability(Port Scan)" optype="continuous" dataType="double" feature="probability" value="Port Scan"/>
			<OutputField name="probability(Web Attack)" optype="continuous" dataType="double" feature="probability" value="Web Attack"/>
		</Output>
		<LocalTransformations>
			<DerivedField name="double(Bwd Packet Length Max)" optype="continuous" dataType="double">
				<FieldRef field="Bwd Packet Length Max"/>
			</DerivedField>
			<DerivedField name="double(Max Packet Length)" optype="continuous" dataType="double">
				<FieldRef field="Max Packet Length"/>
			</DerivedField>
			<DerivedField name="double(Init_Win_bytes_backward)" optype="continuous" dataType="double">
				<FieldRef field="Init_Win_bytes_backward"/>
			</DerivedField>
			<DerivedField name="double(Bwd Header Length)" optype="continuous" dataType="double">
				<FieldRef field="Bwd Header Length"/>
			</DerivedField>
			<DerivedField name="double(Total Length of Fwd Packets)" optype="continuous" dataType="double">
				<FieldRef field="Total Length of Fwd Packets"/>
			</DerivedField>
			<DerivedField name="double(Packet Length Std)" optype="continuous" dataType="double">
				<FieldRef field="Packet Length Std"/>
			</DerivedField>
			<DerivedField name="double(Subflow Fwd Bytes)" optype="continuous" dataType="double">
				<FieldRef field="Subflow Fwd Bytes"/>
			</DerivedField>
			<DerivedField name="double(Packet Length Mean)" optype="continuous" dataType="double">
				<FieldRef field="Packet Length Mean"/>
			</DerivedField>
			<DerivedField name="double(Avg Fwd Segment Size)" optype="continuous" dataType="double">
				<FieldRef field="Avg Fwd Segment Size"/>
			</DerivedField>
			<DerivedField name="double(Average Packet Size)" optype="continuous" dataType="double">
				<FieldRef field="Average Packet Size"/>
			</DerivedField>
			<DerivedField name="double(Fwd Packet Length Mean)" optype="continuous" dataType="double">
				<FieldRef field="Fwd Packet Length Mean"/>
			</DerivedField>
			<DerivedField name="double(Fwd Packet Length Max)" optype="continuous" dataType="double">
				<FieldRef field="Fwd Packet Length Max"/>
			</DerivedField>
			<DerivedField name="double(Avg Bwd Segment Size)" optype="continuous" dataType="double">
				<FieldRef field="Avg Bwd Segment Size"/>
			</DerivedField>
			<DerivedField name="double(Bwd Packet Length Mean)" optype="continuous" dataType="double">
				<FieldRef field="Bwd Packet Length Mean"/>
			</DerivedField>
		</LocalTransformations>
		<Segmentation multipleModelMethod="average" missingPredictionTreatment="returnMissing">
			<Segment id="1">
				<True/>
				<TreeModel functionName="classification" missingValueStrategy="nullPrediction">
					<MiningSchema>
						<MiningField name="double(Bwd Packet Length Max)"/>
						<MiningField name="double(Max Packet Length)"/>
						<MiningField name="double(Init_Win_bytes_backward)"/>
						<MiningField name="double(Bwd Header Length)"/>
						<MiningField name="double(Total Length of Fwd Packets)"/>
						<MiningField name="double(Packet Length Std)"/>
						<MiningField name="double(Subflow Fwd Bytes)"/>
						<MiningField name="double(Packet Length Mean)"/>
						<MiningField name="double(Avg Fwd Segment Size)"/>
						<MiningField name="double(Average Packet Size)"/>
						<MiningField name="double(Fwd Packet Length Mean)"/>
						<MiningField name="double(Fwd Packet Length Max)"/>
						<MiningField name="double(Avg Bwd Segment Size)"/>
						<MiningField name="double(Bwd Packet Length Mean)"/>
					</MiningSchema>
					<Node>
						<True/>
						<Node>
							<SimplePredicate field="double(Bwd Packet Length Max)" operator="lessOrEqual" value="3506.5"/>
							<Node>
								<SimplePredicate field="double(Max Packet Length)" operator="lessOrEqual" value="1.0"/>
								<Node>
									<SimplePredicate field="double(Init_Win_bytes_backward)" operator="lessOrEqual" value="1166.0"/>
									<Node>
										<SimplePredicate field="double(Init_Win_bytes_backward)" operator="lessOrEqual" value="246.0"/>
										<Node score="DoS" recordCount="1">
											<SimplePredicate field="double(Bwd Header Length)" operator="lessOrEqual" value="10.0"/>
											<ScoreDistribution value="BENIGN" recordCount="0.1035103510351035"/>
											<ScoreDistribution value="Bot" recordCount="0"/>
											<ScoreDistribution value="Brute Force" recordCount="0.0072007200720072"/>
											<ScoreDistribution value="DDoS" recordCount="0"/>
											<ScoreDistribution value="DoS" recordCount="0.8613861386138614"/>
											<ScoreDistribution value="Port Scan" recordCount="0.0018001800180018"/>
											<ScoreDistribution value="Web Attack" recordCount="0.026102610261026102"/>
										</Node>
										<Node>
											<SimplePredicate field="double(Bwd Header Length)" operator="lessOrEqual" value="36.0"/>
											<Node score="BENIGN" recordCount="1">
												<SimplePredicate field="double(Bwd Header Length)" operator="lessOrEqual" value="26.0"/>
												<ScoreDistribution value="BENIGN" recordCount="1"/>
												<ScoreDistribution value="Bot" recordCount="0"/>
												<ScoreDistribution value="Brute Force" recordCount="0"/>
												<ScoreDistribution value="DDoS" recordCount="0"/>
												<ScoreDistribution value="DoS" recordCount="0"/>
												<ScoreDistribution value="Port Scan" recordCount="0"/>
												<ScoreDistribution value="Web Attack" recordCount="0"/>
											</Node>
											<Node>
												<SimplePredicate field="double(Init_Win_bytes_backward)" operator="lessOrEqual" value="232.0"/>
												<Node>
													<SimplePredicate field="double(Init_Win_bytes_backward)" operator="lessOrEqual" value="112.0"/>
													<Node score="BENIGN" recordCount="1">
														<SimplePredicate field="double(Init_Win_bytes_backward)" operator="lessOrEqual" value="96.5"/>
														<ScoreDistribution value="BENIGN" recordCount="1"/>
														<ScoreDistribution value="Bot" recordCount="0"/>
														<ScoreDistribution value="Brute Force" recordCount="0"/>
														<ScoreDistribution value="DDoS" recordCount="0"/>
														<ScoreDistribution value="DoS" recordCount="0"/>
														<ScoreDistribution value="Port Scan" recordCount="0"/>
														<ScoreDistribution value="Web Attack" recordCount="0"/>
													</Node>
													<Node score="Bot" recordCount="1">
														<True/>
														<ScoreDistribution value="BENIGN" recordCount="0"/>
														<ScoreDistribution value="Bot" recordCount="1"/>
														<ScoreDistribution value="Brute Force" recordCount="0"/>
														<ScoreDistribution value="DDoS" recordCount="0"/>
														<ScoreDistribution value="DoS" recordCount="0"/>
														<ScoreDistribution value="Port Scan" recordCount="0"/>
														<ScoreDistribution value="Web Attack" recordCount="0"/>
													</Node>
												</Node>
												<Node score="BENIGN" recordCount="1">
													<True/>
													<ScoreDistribution value="BENIGN" recordCount="1"/>
													<ScoreDistribution value="Bot" recordCount="0"/>
													<ScoreDistribution value="Brute Force" recordCount="0"/>
													<ScoreDistribution value="DDoS" recordCount="0"/>
													<ScoreDistribution value="DoS" recordCount="0"/>
													<ScoreDistribution value="Port Scan" recordCount="0"/>
													<ScoreDistribution value="Web Attack" recordCount="0"/>
												</Node>
											</Node>
											<Node>
												<SimplePredicate field="double(Init_Win_bytes_backward)" operator="lessOrEqual" value="241.5"/>
												<Node score="Web Attack" recordCount="1">
													<SimplePredicate field="double(Init_Win_bytes_backward)" operator="lessOrEqual" value="235.5"/>
													<ScoreDistribution value="BENIGN" recordCount="0.0136986301369863"/>
													<ScoreDistribution value="Bot" recordCount="0"/>
													<ScoreDistribution value="Brute Force" recordCount="0"/>
													<ScoreDistribution value="DDoS" recordCount="0"/>
													<ScoreDistribution value="DoS" recordCount="0.0958904109589041"/>
													<ScoreDistribution value="Port Scan" recordCount="0"/>
													<ScoreDistribution value="Web Attack" recordCount="0.8904109589041096"/>
												</Node>
												<Node score="Web Attack" recordCount="1">
													<SimplePredicate field="double(Init_Win_bytes_backward)" operator="lessOrEqual" value="240.0"/>
													<ScoreDistribution value="BENIGN" recordCount="0"/>
													<ScoreDistribution value="Bot" recordCount="0"/>
													<ScoreDistribution value="Brute Force" recordCount="0"/>
													<ScoreDistribution value="DDoS" recordCount="0"/>
													<ScoreDistribution value="DoS" recordCount="0"/>
													<ScoreDistribution value="Port Scan" recordCount="0"/>
													<ScoreDistribution value="Web Attack" recordCount="1"/>
												</Node>
												<Node score="Web Attack" recordCount="1">
													<True/>
													<ScoreDistribution value="BENIGN" recordCount="0.3333333333333333"/>
													<ScoreDistribution value="Bot" recordCount="0"/>
													<ScoreDistribution value="Brute Force" recordCount="0"/>
													<ScoreDistribution value="DDoS" recordCount="0"/>
													<ScoreDistribution value="DoS" recordCount="0"/>
													<ScoreDistribution value="Port Scan" recordCount="0"/>
													<ScoreDistribution value="Web Attack" recordCount="0.6666666666666666"/>
												</Node>
											</Node>
											<Node score="BENIGN" recordCount="1">
												<True/>
												<ScoreDistribution value="BENIGN" recordCount="1"/>
												<ScoreDistribution value="Bot" recordCount="0"/>
												<ScoreDistribution value="Brute Force" recordCount="0"/>
												<ScoreDistribution value="DDoS" recordCount="0"/>
												<ScoreDistribution value="DoS" recordCount="0"/>
												<ScoreDistribution value="Port Scan" recordCount="0"/>
												<ScoreDistribution value="Web Attack" recordCount="0"/>
											</Node>
										</Node>
										<Node score="BENIGN" recordCount="1">
											<SimplePredicate field="double(Bwd Header Length)" operator="lessOrEqual" value="68.0"/>
											<ScoreDistribution value="BENIGN" recordCount="1"/>
											<ScoreDistribution value="Bot" recordCount="0"/>
											<ScoreDistribution value="Brute Force" recordCount="0"/>
											<ScoreDistribution value="DDoS" recordCount="0"/>
											<ScoreDistribution value="DoS" recordCount="0"/>
											<ScoreDistribution value="Port Scan" recordCount="0"/>
											<ScoreDistribution value="Web Attack" recordCount="0"/>
										</Node>
										<Node score="Brute Force" recordCount="1">
											<SimplePredicate field="double(Bwd Header Length)" operator="lessOrEqual" value="78.0"/>
											<ScoreDistribution value="BENIGN" recordCount="0"/>
											<ScoreDistribution value="Bot" recordCount="0"/>
											<ScoreDistribution value="Brute Force" recordCount="1"/>
											<ScoreDistribution value="DDoS" recordCount="0"/>
											<ScoreDistribution value="DoS" recordCount="0"/>
											<ScoreDistribution value="Port Scan" recordCount="0"/>
											<ScoreDistribution value="Web Attack" recordCount="0"/>
										</Node>
										<Node score="BENIGN" recordCount="1">
											<True/>
											<ScoreDistribution value="BENIGN" recordCount="1"/>
											<ScoreDistribution value="Bot" recordCount="0"/>
											<ScoreDistribution value="Brute Force" recordCount="0"/>
											<ScoreDistribution value="DDoS" recordCount="0"/>
											<ScoreDistribution value="DoS" recordCount="0"/>
											<ScoreDistribution value="Port Scan" recordCount="0"/>
											<ScoreDistribution value="Web Attack" recordCount="0"/>
										</Node>
									</Node>
									<Node score="BENIGN" recordCount="1">
										<SimplePredicate field="double(Bwd Header Length)" operator="lessOrEqual" value="26.0"/>
										<ScoreDistribution value="BENIGN" recordCount="1"/>
										<ScoreDistribution value="Bot" recordCount="0"/>
										<ScoreDistribution value="Brute Force" recordCount="0"/>
										<ScoreDistribution value="DDoS" recordCount="0"/>
										<ScoreDistribution value="DoS" recordCount="0"/>
										<ScoreDistribution value="Port Scan" recordCount="0"/>
										<ScoreDistribution value="Web Attack" recordCount="0"/>
									</Node>
									<Node>
										<SimplePredicate field="double(Bwd Header Length)" operator="lessOrEqual" value="36.0"/>
										<Node>
											<SimplePredicate field="double(Init_Win_bytes_backward)" operator="lessOrEqual" value="270.0"/>
											<Node score="Brute Force" recordCount="1">
												<SimplePredicate field="double(Init_Win_bytes_backward)" operator="lessOrEqual" value="248.5"/>
												<ScoreDistribution value="BENIGN" recordCount="0"/>
												<ScoreDistribution value="Bot" recordCount="0"/>
												<ScoreDistribution value="Brute Force" recordCount="1"/>
												<ScoreDistribution value="DDoS" recordCount="0"/>
												<ScoreDistribution value="DoS" recordCount="0"/>
												<ScoreDistribution value="Port Scan" recordCount="0"/>
												<ScoreDistribution value="Web Attack" recordCount="0"/>
											</Node>
											<Node>
												<SimplePredicate field="double(Init_Win_bytes_backward)" operator="lessOrEqual" value="256.5"/>
												<Node>
													<SimplePredicate field="double(Init_Win_bytes_backward)" operator="lessOrEqual" value="253.5"/>
													<Node score="BENIGN" recordCount="1">
														<SimplePredicate field="double(Init_Win_bytes_backward)" operator="lessOrEqual" value="251.5"/>
														<ScoreDistribution value="BENIGN" recordCount="1"/>
														<ScoreDistribution value="Bot" recordCount="0"/>
														<ScoreDistribution value="Brute Force" recordCount="0"/>
														<ScoreDistribution value="DDoS" recordCount="0"/>
														<ScoreDistribution value="DoS" recordCount="0"/>
														<ScoreDistribution value="Port Scan" recordCount="0"/>
														<ScoreDistribution value="Web Attack" recordCount="0"/>
													</Node>
													<Node score="BENIGN" recordCount="1">
														<SimplePredicate field="double(Init_Win_bytes_backward)" operator="lessOrEqual" value="252.5"/>
														<ScoreDistribution value="BENIGN" recordCount="0.5"/>
														<ScoreDistribution value="Bot" recordCount="0"/>
														<ScoreDistribution value="Brute Force" recordCount="0"/>
														<ScoreDistribution value="DDoS" recordCount="0"/>
														<ScoreDistribution value="DoS" recordCount="0"/>
														<ScoreDistribution value="Port Scan" recordCount="0"/>
														<ScoreDistribution value="Web Attack" recordCount="0.5"/>
													</Node>
													<Node score="Web Attack" recordCount="1">
														<True/>
														<ScoreDistribution value="BENIGN" recordCount="0"/>
														<ScoreDistribution value="Bot" recordCount="0"/>
														<ScoreDistribution value="Brute Force" recordCount="0"/>
														<ScoreDistribution value="DDoS" recordCount="0"/>
														<ScoreDistribution value="DoS" recordCount="0"/>
														<ScoreDistribution value="Port Scan" recordCount="0"/>
														<ScoreDistribution value="Web Attack" recordCount="1"/>
													</Node>
												</Node>
												<Node score="BENIGN" recordCount="1">
													<True/>
													<ScoreDistribution value="BENIGN" recordCount="1"/>
													<ScoreDistribution value="Bot" recordCount="0"/>
													<ScoreDistribution value="Brute Force" recordCount="0"/>
													<ScoreDistribution value="DDoS" recordCount="0"/>
													<ScoreDistribution value="DoS" recordCount="0"/>
													<ScoreDistribution value="Port Scan" recordCount="0"/>
													<ScoreDistribution value="Web Attack" recordCount="0"/>
												</Node>
											</Node>
											<Node score="Brute Force" recordCount="1">
												<SimplePredicate field="double(Init_Win_bytes_backward)" operator="lessOrEqual" value="262.0"/>
												<ScoreDistribution value="BENIGN" recordCount="0.017241379310344827"/>
												<ScoreDistribution value="Bot" recordCount="0"/>
												<ScoreDistribution value="Brute Force" recordCount="0.9827586206896551"/>
												<ScoreDistribution value="DDoS" recordCount="0"/>
												<ScoreDistribution value="DoS" recordCount="0"/>
												<ScoreDistribution value="Port Scan" recordCount="0"/>
												<ScoreDistribution value="Web Attack" recordCount="0"/>
											</Node>
											<Node score="Brute Force" recordCount="1">
												<True/>
												<ScoreDistribution value="BENIGN" recordCount="0"/>
												<ScoreDistribution value="Bot" recordCount="0"/>
												<ScoreDistribution value="Brute Force" recordCount="1"/>
												<ScoreDistribution value="DDoS" recordCount="0"/>
												<ScoreDistribution value="DoS" recordCount="0"/>
												<ScoreDistribution value="Port Scan" recordCount="0"/>
												<ScoreDistribution value="Web Attack" recordCount="0"/>
											</Node>
										</Node>
										<Node>
											<SimplePredicate field="double(Init_Win_bytes_backward)" operator="lessOrEqual" value="286.5"/>
											<Node score="BENIGN" recordCount="1">
												<SimplePredicate field="double(Init_Win_bytes_backward)" operator="lessOrEqual" value="279.5"/>
												<ScoreDistribution value="BENIGN" recordCount="1"/>
												<ScoreDistribution value="Bot" recordCount="0"/>
												<ScoreDistribution value="Brute Force" recordCount="0"/>
												<ScoreDistribution value="DDoS" recordCount="0"/>
												<ScoreDistribution value="DoS" recordCount="0"/>
												<ScoreDistribution value="Port Scan" recordCount="0"/>
												<ScoreDistribution value="Web Attack" recordCount="0"/>
											</Node>
											<Node score="Web Attack" recordCount="1">
												<True/>
												<ScoreDistribution value="BENIGN" recordCount="0"/>
												<ScoreDistribution value="Bot" recordCount="0"/>
												<ScoreDistribution value="Brute Force" recordCount="0"/>
												<ScoreDistribution value="DDoS" recordCount="0"/>
												<ScoreDistribution value="DoS" recordCount="0"/>
												<ScoreDistribution value="Port Scan" recordCount="0"/>
												<ScoreDistribution value="Web Attack" recordCount="1"/>
											</Node>
										</Node>
										<Node score="BENIGN" recordCount="1">
											<True/>
											<ScoreDistribution value="BENIGN" recordCount="1"/>
											<ScoreDistribution value="Bot" recordCount="0"/>
											<ScoreDistribution value="Brute Force" recordCount="0"/>
											<ScoreDistribution value="DDoS" recordCount="0"/>
											<ScoreDistribution value="DoS" recordCount="0"/>
											<ScoreDistribution value="Port Scan" recordCount="0"/>
											<ScoreDistribution value="Web Attack" recordCount="0"/>
										</Node>
									</Node>
									<Node score="BENIGN" recordCount="1">
										<True/>
										<ScoreDistribution value="BENIGN" recordCount="1"/>
										<ScoreDistribution value="Bot" recordCount="0"/>
										<ScoreDistribution value="Brute Force" recordCount="0"/>
										<ScoreDistribution value="DDoS" recordCount="0"/>
										<ScoreDistribution value="DoS" recordCount="0"/>
										<ScoreDistribution value="Port Scan" recordCount="0"/>
										<ScoreDistribution value="Web Attack" recordCount="0"/>
									</Node>
								</Node>
								<Node>
									<SimplePredicate field="double(Bwd Header Length)" operator="lessOrEqual" value="36.0"/>
									<Node score="Web Attack" recordCount="1">
										<SimplePredicate field="double(Init_Win_bytes_backward)" operator="lessOrEqual" value="1216.5"/>
										<ScoreDistribution value="BENIGN" recordCount="0"/>
										<ScoreDistribution value="Bot" recordCount="0"/>
										<ScoreDistribution value="Brute Force" recordCount="0"/>
										<ScoreDistribution value="DDoS" recordCount="0"/>
										<ScoreDistribution value="DoS" recordCount="0"/>
										<ScoreDistribution value="Port Scan" recordCount="0"/>
										<ScoreDistribution value="Web Attack" recordCount="1"/>
									</Node>
									<Node score="BENIGN" recordCount="1">
										<True/>
										<ScoreDistribution value="BENIGN" recordCount="1"/>
										<ScoreDistribution value="Bot" recordCount="0"/>
										<ScoreDistribution value="Brute Force" recordCount="0"/>
										<ScoreDistribution value="DDoS" recordCount="0"/>
										<ScoreDistribution value="DoS" recordCount="0"/>
										<ScoreDistribution value="Port Scan" recordCount="0"/>
										<ScoreDistribution value="Web Attack" recordCount="0"/>
									</Node>
								</Node>
								<Node>
									<SimplePredicate field="double(Init_Win_bytes_backward)" operator="lessOrEqual" value="29080.0"/>
									<Node>
										<SimplePredicate field="double(Bwd Header Length)" operator="lessOrEqual" value="60.0"/>
										<Node score="BENIGN" recordCount="1">
											<SimplePredicate field="double(Init_Win_bytes_backward)" operator="lessOrEqual" value="27903.5"/>
											<ScoreDistribution value="BENIGN" recordCount="1"/>
											<ScoreDistribution value="Bot" recordCount="0"/>
											<ScoreDistribution value="Brute Force" recordCount="0"/>
											<ScoreDistribution value="DDoS" recordCount="0"/>
											<ScoreDistribution value="DoS" recordCount="0"/>
											<ScoreDistribution value="Port Scan" recordCount="0"/>
											<ScoreDistribution value="Web Attack" recordCount="0"/>
										</Node>
										<Node score="Web Attack" recordCount="1">
											<True/>
											<ScoreDistribution value="BENIGN" recordCount="0.0028735632183908046"/>
											<ScoreDistribution value="Bot" recordCount="0"/>
											<ScoreDistribution value="Brute Force" recordCount="0"/>
											<ScoreDistribution value="DDoS" recordCount="0"/>
											<ScoreDistribution value="DoS" recordCount="0"/>
											<ScoreDistribution value="Port Scan" recordCount="0.005108556832694764"/>
											<ScoreDistribution value="Web Attack" recordCount="0.9920178799489144"/>
										</Node>
									</Node>
									<Node score="BENIGN" recordCount="1">
										<SimplePredicate field="double(Init_Win_bytes_backward)" operator="lessOrEqual" value="21220.0"/>
										<ScoreDistribution value="BENIGN" recordCount="1"/>
										<ScoreDistribution value="Bot" recordCount="0"/>
										<ScoreDistribution value="Brute Force" recordCount="0"/>
										<ScoreDistribution value="DDoS" recordCount="0"/>
										<ScoreDistribution value="DoS" recordCount="0"/>
										<ScoreDistribution value="Port Scan" recordCount="0"/>
										<ScoreDistribution value="Web Attack" recordCount="0"/>
									</Node>
									<Node score="BENIGN" recordCount="1">
										<True/>
										<ScoreDistribution value="BENIGN" recordCount="0.5"/>
										<ScoreDistribution value="Bot" recordCount="0"/>
										<ScoreDistribution value="Brute Force" recordCount="0"/>
										<ScoreDistribution value="DDoS" recordCount="0"/>
										<ScoreDistribution value="DoS" recordCount="0.5"/>
										<ScoreDistribution value="Port Scan" recordCount="0"/>
										<ScoreDistribution value="Web Attack" recordCount="0"/>
									</Node>
								</Node>
								<Node score="BENIGN" recordCount="1">
									<True/>
									<ScoreDistribution value="BENIGN" recordCount="1"/>
									<ScoreDistribution value="Bot" recordCount="0"/>
									<ScoreDistribution value="Brute Force" recordCount="0"/>
									<ScoreDistribution value="DDoS" recordCount="0"/>
									<ScoreDistribution value="DoS" recordCount="0"/>
									<ScoreDistribution value="Port Scan" recordCount="0"/>
									<ScoreDistribution value="Web Attack" recordCount="0"/>
								</Node>
							</Node>
							<Node>
								<SimplePredicate field="double(Total Length of Fwd Packets)" operator="lessOrEqual" value="3.0"/>
								<Node>
									<SimplePredicate field="double(Packet Length Std)" operator="lessOrEqual" value="3.375218391418457"/>
									<Node>
										<SimplePredicate field="double(Subflow Fwd Bytes)" operator="lessOrEqual" value="1.0"/>
										<Node score="Bot" recordCount="1">
											<SimplePredicate field="double(Max Packet Length)" operator="lessOrEqual" value="5.5"/>
											<ScoreDistribution value="BENIGN" recordCount="0"/>
											<ScoreDistribution value="Bot" recordCount="1"/>
											<ScoreDistribution value="Brute Force" recordCount="0"/>
											<ScoreDistribution value="DDoS" recordCount="0"/>
											<ScoreDistribution value="DoS" recordCount="0"/>
											<ScoreDistribution value="Port Scan" recordCount="0"/>
											<ScoreDistribution value="Web Attack" recordCount="0"/>
										</Node>
										<Node score="Port Scan" recordCount="1">
											<SimplePredicate field="double(Packet Length Mean)" operator="lessOrEqual" value="2.485714316368103"/>
											<ScoreDistribution value="BENIGN" recordCount="0.375"/>
											<ScoreDistribution value="Bot" recordCount="0"/>
											<ScoreDistribution value="Brute Force" recordCount="0"/>
											<ScoreDistribution value="DDoS" recordCount="0"/>
											<ScoreDistribution value="DoS" recordCount="0"/>
											<ScoreDistribution value="Port Scan" recordCount="0.625"/>
											<ScoreDistribution value="Web Attack" recordCount="0"/>
										</Node>
										<Node score="Bot" recordCount="1">
											<SimplePredicate field="double(Packet Length Std)" operator="lessOrEqual" value="3.246735095977783"/>
											<ScoreDistribution value="BENIGN" recordCount="0"/>
											<ScoreDistribution value="Bot" recordCount="1"/>
											<ScoreDistribution value="Brute Force" recordCount="0"/>
											<ScoreDistribution value="DDoS" recordCount="0"/>
											<ScoreDistribution value="DoS" recordCount="0"/>
											<ScoreDistribution value="Port Scan" recordCount="0"/>
											<ScoreDistribution value="Web Attack" recordCount="0"/>
										</Node>
										<Node score="BENIGN" recordCount="1">
											<True/>
											<ScoreDistribution value="BENIGN" recordCount="1"/>
											<ScoreDistribution value="Bot" recordCount="0"/>
											<ScoreDistribution value="Brute Force" recordCount="0"/>
											<ScoreDistribution value="DDoS" recordCount="0"/>
											<ScoreDistribution value="DoS" recordCount="0"/>
											<ScoreDistribution value="Port Scan" recordCount="0"/>
											<ScoreDistribution value="Web Attack" recordCount="0"/>
										</Node>
									</Node>
									<Node score="Port Scan" recordCount="1">
										<SimplePredicate field="double(Avg Fwd Segment Size)" operator="lessOrEqual" value="1.5"/>
										<ScoreDistribution value="BENIGN" recordCount="0"/>
										<ScoreDistribution value="Bot" recordCount="0"/>
										<ScoreDistribution value="Brute Force" recordCount="0"/>
										<ScoreDistribution value="DDoS" recordCount="0"/>
										<ScoreDistribution value="DoS" recordCount="0"/>
										<ScoreDistribution value="Port Scan" recordCount="1"/>
										<ScoreDistribution value="Web Attack" recordCount="0"/>
									</Node>
									<Node score="Port Scan" recordCount="1">
										<True/>
										<ScoreDistribution value="BENIGN" recordCount="5.52791597567717E-4"/>
										<ScoreDistribution value="Bot" recordCount="0"/>
										<ScoreDistribution value="Brute Force" recordCount="0"/>
										<ScoreDistribution value="DDoS" recordCount="0"/>
										<ScoreDistribution value="DoS" recordCount="0"/>
										<ScoreDistribution value="Port Scan" recordCount="0.9994472084024323"/>
										<ScoreDistribution value="Web Attack" recordCount="0"/>
									</Node>
								</Node>
								<Node>
									<SimplePredicate field="double(Packet Length Mean)" operator="lessOrEqual" value="8.095237970352173"/>
									<Node score="Port Scan" recordCount="1">
										<SimplePredicate field="double(Bwd Header Length)" operator="lessOrEqual" value="46.0"/>
										<ScoreDistribution value="BENIGN" recordCount="0.0021344717182497333"/>
										<ScoreDistribution value="Bot" recordCount="0"/>
										<ScoreDistribution value="Brute Force" recordCount="0"/>
										<ScoreDistribution value="DDoS" recordCount="0"/>
										<ScoreDistribution value="DoS" recordCount="0"/>
										<ScoreDistribution value="Port Scan" recordCount="0.9978655282817502"/>
										<ScoreDistribution value="Web Attack" recordCount="0"/>
									</Node>
									<Node score="Port Scan" recordCount="1">
										<True/>
										<ScoreDistribution value="BENIGN" recordCount="0"/>
										<ScoreDistribution value="Bot" recordCount="0"/>
										<ScoreDistribution value="Brute Force" recordCount="0"/>
										<ScoreDistribution value="DDoS" recordCount="0"/>
										<ScoreDistribution value="DoS" recordCount="0"/>
										<ScoreDistribution value="Port Scan" recordCount="1"/>
										<ScoreDistribution value="Web Attack" recordCount="0"/>
									</Node>
								</Node>
								<Node score="BENIGN" recordCount="1">
									<SimplePredicate field="double(Average Packet Size)" operator="lessOrEqual" value="257.375"/>
									<ScoreDistribution value="BENIGN" recordCount="1"/>
									<ScoreDistribution value="Bot" recordCount="0"/>
									<ScoreDistribution value="Brute Force" recordCount="0"/>
									<ScoreDistribution value="DDoS" recordCount="0"/>
									<ScoreDistribution value="DoS" recordCount="0"/>
									<ScoreDistribution value="Port Scan" recordCount="0"/>
									<ScoreDistribution value="Web Attack" recordCount="0"/>
								</Node>
								<Node score="DoS" recordCount="1">
									<True/>
									<ScoreDistribution value="BENIGN" recordCount="0"/>
									<ScoreDistribution value="Bot" recordCount="0"/>
									<ScoreDistribution value="Brute Force" recordCount="0"/>
									<ScoreDistribution value="DDoS" recordCount="0"/>
									<ScoreDistribution value="DoS" recordCount="1"/>
									<ScoreDistribution value="Port Scan" recordCount="0"/>
									<ScoreDistribution value="Web Attack" recordCount="0"/>
								</Node>
							</Node>
							<Node>
								<SimplePredicate field="double(Init_Win_bytes_backward)" operator="lessOrEqual" value="236.5"/>
								<Node>
									<SimplePredicate field="double(Fwd Packet Length Mean)" operator="lessOrEqual" value="14.222221851348877"/>
									<Node>
										<SimplePredicate field="double(Avg Fwd Segment Size)" operator="lessOrEqual" value="6.944444417953491"/>
										<Node>
											<SimplePredicate field="double(Packet Length Std)" operator="lessOrEqual" value="1.095445156097412"/>
											<Node>
												<SimplePredicate field="double(Total Length of Fwd Packets)" operator="lessOrEqual" value="21.0"/>
												<Node score="BENIGN" recordCount="1">
													<SimplePredicate field="double(Fwd Packet Length Mean)" operator="lessOrEqual" value="4.0"/>
													<ScoreDistribution value="BENIGN" recordCount="1"/>
													<ScoreDistribution value="Bot" recordCount="0"/>
													<ScoreDistribution value="Brute Force" recordCount="0"/>
													<ScoreDistribution value="DDoS" recordCount="0"/>
													<ScoreDistribution value="DoS" recordCount="0"/>
													<ScoreDistribution value="Port Scan" recordCount="0"/>
													<ScoreDistribution value="Web Attack" recordCount="0"/>
												</Node>
												<Node>
													<SimplePredicate field="double(Subflow Fwd Bytes)" operator="lessOrEqual" value="15.0"/>
													<Node score="BENIGN" recordCount="1">
														<SimplePredicate field="double(Subflow Fwd Bytes)" operator="lessOrEqual" value="9.0"/>
														<ScoreDistribution value="BENIGN" recordCount="1"/>
														<ScoreDistribution value="Bot" recordCount="0"/>
														<ScoreDistribution value="Brute Force" recordCount="0"/>
														<ScoreDistribution value="DDoS" recordCount="0"/>
														<ScoreDistribution value="DoS" recordCount="0"/>
														<ScoreDistribution value="Port Scan" recordCount="0"/>
														<ScoreDistribution value="Web Attack" recordCount="0"/>
													</Node>
													<Node score="BENIGN" recordCount="1">
														<SimplePredicate field="double(Bwd Header Length)" operator="lessOrEqual" value="10.0"/>
														<ScoreDistribution value="BENIGN" recordCount="0.9770114942528736"/>
														<ScoreDistribution value="Bot" recordCount="0"/>
														<ScoreDistribution value="Brute Force" recordCount="0"/>
														<ScoreDistribution value="DDoS" recordCount="0.011494252873563218"/>
														<ScoreDistribution value="DoS" recordCount="0.011494252873563218"/>
														<ScoreDistribution value="Port Scan" recordCount="0"/>
														<ScoreDistribution value="Web Attack" recordCount="0"/>
													</Node>
													<Node score="DDoS" recordCount="1">
														<True/>
														<ScoreDistribution value="BENIGN" recordCount="0"/>
														<ScoreDistribution value="Bot" recordCount="0"/>
														<ScoreDistribution value="Brute Force" recordCount="0"/>
														<ScoreDistribution value="DDoS" recordCount="1"/>
														<ScoreDistribution value="DoS" recordCount="0"/>
														<ScoreDistribution value="Port Scan" recordCount="0"/>
														<ScoreDistribution value="Web Attack" recordCount="0"/>
													</Node>
												</Node>
												<Node score="BENIGN" recordCount="0.9999999999999999">
													<SimplePredicate field="double(Bwd Packet Length Max)" operator="lessOrEqual" value="3.0"/>
													<ScoreDistribution value="BENIGN" recordCount="0.5263157894736842"/>
													<ScoreDistribution value="Bot" recordCount="0"/>
													<ScoreDistribution value="Brute Force" recordCount="0"/>
													<ScoreDistribution value="DDoS" recordCount="0.3684210526315789"/>
													<ScoreDistribution value="DoS" recordCount="0.10526315789473684"/>
													<ScoreDistribution value="Port Scan" recordCount="0"/>
													<ScoreDistribution value="Web Attack" recordCount="0"/>
												</Node>
												<Node score="BENIGN" recordCount="1">
													<True/>
													<ScoreDistribution value="BENIGN" recordCount="1"/>
													<ScoreDistribution value="Bot" recordCount="0"/>
													<ScoreDistribution value="Brute Force" recordCount="0"/>
													<ScoreDistribution value="DDoS" recordCount="0"/>
													<ScoreDistribution value="DoS" recordCount="0"/>
													<ScoreDistribution value="Port Scan" recordCount="0"/>
													<ScoreDistribution value="Web Attack" recordCount="0"/>
												</Node>
											</Node>
											<Node>
												<SimplePredicate field="double(Average Packet Size)" operator="lessOrEqual" value="7.349999904632568"/>
												<Node score="DDoS" recordCount="1">
													<SimplePredicate field="double(Average Packet Size)" operator="lessOrEqual" value="7.099999904632568"/>
													<ScoreDistribution value="BENIGN" recordCount="0"/>
													<ScoreDistribution value="Bot" recordCount="0"/>
													<ScoreDistribution value="Brute Force" recordCount="0"/>
													<ScoreDistribution value="DDoS" recordCount="1"/>
													<ScoreDistribution value="DoS" recordCount="0"/>
													<ScoreDistribution value="Port Scan" recordCount="0"/>
													<ScoreDistribution value="Web Attack" recordCount="0"/>
												</Node>
												<Node score="DDoS" recordCount="1">
													<True/>
													<ScoreDistribution value="BENIGN" recordCount="0.0015503875968992248"/>
													<ScoreDistribution value="Bot" recordCount="0"/>
													<ScoreDistribution value="Brute Force" recordCount="0"/>
													<ScoreDistribution value="DDoS" recordCount="0.9984496124031008"/>
													<ScoreDistribution value="DoS" recordCount="0"/>
													<ScoreDistribution value="Port Scan" recordCount="0"/>
													<ScoreDistribution value="Web Attack" recordCount="0"/>
												</Node>
											</Node>
											<Node score="DDoS" recordCount="1">
												<True/>
												<ScoreDistribution value="BENIGN" recordCount="0.0030349013657056147"/>
												<ScoreDistribution value="Bot" recordCount="0"/>
												<ScoreDistribution value="Brute Force" recordCount="0"/>
												<ScoreDistribution value="DDoS" recordCount="0.9969650986342944"/>
												<ScoreDistribution value="DoS" recordCount="0"/>
												<ScoreDistribution value="Port Scan" recordCount="0"/>
												<ScoreDistribution value="Web Attack" recordCount="0"/>
											</Node>
										</Node>
										<Node score="BENIGN" recordCount="1">
											<SimplePredicate field="double(Subflow Fwd Bytes)" operator="lessOrEqual" value="5.0"/>
											<ScoreDistribution value="BENIGN" recordCount="1"/>
											<ScoreDistribution value="Bot" recordCount="0"/>
											<ScoreDistribution value="Brute Force" recordCount="0"/>
											<ScoreDistribution value="DDoS" recordCount="0"/>
											<ScoreDistribution value="DoS" recordCount="0"/>
											<ScoreDistribution value="Port Scan" recordCount="0"/>
											<ScoreDistribution value="Web Attack" recordCount="0"/>
										</Node>
										<Node>
											<SimplePredicate field="double(Packet Length Std)" operator="lessOrEqual" value="9.042812585830688"/>
											<Node>
												<SimplePredicate field="double(Init_Win_bytes_backward)" operator="lessOrEqual" value="174.5"/>
												<Node score="DoS" recordCount="1">
													<SimplePredicate field="double(Fwd Packet Length Mean)" operator="lessOrEqual" value="2.700000047683716"/>
													<ScoreDistribution value="BENIGN" recordCount="0"/>
													<ScoreDistribution value="Bot" recordCount="0"/>
													<ScoreDistribution value="Brute Force" recordCount="0"/>
													<ScoreDistribution value="DDoS" recordCount="0"/>
													<ScoreDistribution value="DoS" recordCount="1"/>
													<ScoreDistribution value="Port Scan" recordCount="0"/>
													<ScoreDistribution value="Web Attack" recordCount="0"/>
												</Node>
												<Node>
													<SimplePredicate field="double(Fwd Packet Length Mean)" operator="lessOrEqual" value="5.400000095367432"/>
													<Node score="BENIGN" recordCount="1">
														<SimplePredicate field="double(Subflow Fwd Bytes)" operator="lessOrEqual" value="12.0"/>
														<ScoreDistribution value="BENIGN" recordCount="1"/>
														<ScoreDistribution value="Bot" recordCount="0"/>
														<ScoreDistribution value="Brute Force" recordCount="0"/>
														<ScoreDistribution value="DDoS" recordCount="0"/>
														<ScoreDistribution value="DoS" recordCount="0"/>
														<ScoreDistribution value="Port Scan" recordCount="0"/>
														<ScoreDistribution value="Web Attack" recordCount="0"/>
													</Node>
													<Node score="DDoS" recordCount="1">
														<True/>
														<ScoreDistribution value="BENIGN" recordCount="0"/>
														<ScoreDistribution value="Bot" recordCount="0"/>
														<ScoreDistribution value="Brute Force" recordCount="0"/>
														<ScoreDistribution value="DDoS" recordCount="1"/>
														<ScoreDistribution value="DoS" recordCount="0"/>
														<ScoreDistribution value="Port Scan" recordCount="0"/>
														<ScoreDistribution value="Web Attack" recordCount="0"/>
													</Node>
												</Node>
												<Node score="BENIGN" recordCount="1">
													<True/>
													<ScoreDistribution value="BENIGN" recordCount="1"/>
													<ScoreDistribution value="Bot" recordCount="0"/>
													<ScoreDistribution value="Brute Force" recordCount="0"/>
													<ScoreDistribution value="DDoS" recordCount="0"/>
													<ScoreDistribution value="DoS" recordCount="0"/>
													<ScoreDistribution value="Port Scan" recordCount="0"/>
													<ScoreDistribution value="Web Attack" recordCount="0"/>
												</Node>
											</Node>
											<Node score="DoS" recordCount="1">
												<True/>
												<ScoreDistribution value="BENIGN" recordCount="0"/>
												<ScoreDistribution value="Bot" recordCount="0"/>
												<ScoreDistribution value="Brute Force" recordCount="0"/>
												<ScoreDistribution value="DDoS" recordCount="0"/>
												<ScoreDistribution value="DoS" recordCount="1"/>
												<ScoreDistribution value="Port Scan" recordCount="0"/>
												<ScoreDistribution value="Web Attack" recordCount="0"/>
											</Node>
										</Node>
										<Node>
											<SimplePredicate field="double(Average Packet Size)" operator="lessOrEqual" value="511.8562469482422"/>
											<Node score="Brute Force" recordCount="1">
												<SimplePredicate field="double(Packet Length Std)" operator="lessOrEqual" value="13.069776058197021"/>
												<ScoreDistribution value="BENIGN" recordCount="0"/>
												<ScoreDistribution value="Bot" recordCount="0"/>
												<ScoreDistribution value="Brute Force" recordCount="1"/>
												<ScoreDistribution value="DDoS" recordCount="0"/>
												<ScoreDistribution value="DoS" recordCount="0"/>
												<ScoreDistribution value="Port Scan" recordCount="0"/>
												<ScoreDistribution value="Web Attack" recordCount="0"/>
											</Node>
											<Node score="BENIGN" recordCount="1">
												<True/>
												<ScoreDistribution value="BENIGN" recordCount="1"/>
												<ScoreDistribution value="Bot" recordCount="0"/>
												<ScoreDistribution value="Brute Force" recordCount="0"/>
												<ScoreDistribution value="DDoS" recordCount="0"/>
												<ScoreDistribution value="DoS" recordCount="0"/>
												<ScoreDistribution value="Port Scan" recordCount="0"/>
												<ScoreDistribution value="Web Attack" recordCount="0"/>
											</Node>
										</Node>
										<Node score="DDoS" recordCount="1">
											<True/>
											<ScoreDistribution value="BENIGN" recordCount="0"/>
											<ScoreDistribution value="Bot" recordCount="0"/>
											<ScoreDistribution value="Brute Force" recordCount="0"/>
											<ScoreDistribution value="DDoS" recordCount="1"/>
											<ScoreDistribution value="DoS" recordCount="0"/>
											<ScoreDistribution value="Port Scan" recordCount="0"/>
											<ScoreDistribution value="Web Attack" recordCount="0"/>
										</Node>
									</Node>
									<Node score="DoS" recordCount="1">
										<SimplePredicate field="double(Fwd Packet Length Max)" operator="lessOrEqual" value="11.0"/>
										<ScoreDistribution value="BENIGN" recordCount="0"/>
										<ScoreDistribution value="Bot" recordCount="0"/>
										<ScoreDistribution value="Brute Force" recordCount="0"/>
										<ScoreDistribution value="DDoS" recordCount="0"/>
										<ScoreDistribution value="DoS" recordCount="1"/>
										<ScoreDistribution value="Port Scan" recordCount="0"/>
										<ScoreDistribution value="Web Attack" recordCount="0"/>
									</Node>
									<Node>
										<SimplePredicate field="double(Max Packet Length)" operator="lessOrEqual" value="1468.0"/>
										<Node>
											<SimplePredicate field="double(Init_Win_bytes_backward)" operator="lessOrEqual" value="228.0"/>
											<Node>
												<SimplePredicate field="double(Average Packet Size)" operator="lessOrEqual" value="9.291666507720947"/>
												<Node score="Brute Force" recordCount="1">
													<SimplePredicate field="double(Max Packet Length)" operator="lessOrEqual" value="22.5"/>
													<ScoreDistribution value="BENIGN" recordCount="0"/>
													<ScoreDistribution value="Bot" recordCount="0"/>
													<ScoreDistribution value="Brute Force" recordCount="1"/>
													<ScoreDistribution value="DDoS" recordCount="0"/>
													<ScoreDistribution value="DoS" recordCount="0"/>
													<ScoreDistribution value="Port Scan" recordCount="0"/>
													<ScoreDistribution value="Web Attack" recordCount="0"/>
												</Node>
												<Node score="BENIGN" recordCount="1">
													<True/>
													<ScoreDistribution value="BENIGN" recordCount="1"/>
													<ScoreDistribution value="Bot" recordCount="0"/>
													<ScoreDistribution value="Brute Force" recordCount="0"/>
													<ScoreDistribution value="DDoS" recordCount="0"/>
													<ScoreDistribution value="DoS" recordCount="0"/>
													<ScoreDistribution value="Port Scan" recordCount="0"/>
													<ScoreDistribution value="Web Attack" recordCount="0"/>
												</Node>
											</Node>
											<Node score="Brute Force" recordCount="1">
												<SimplePredicate field="double(Fwd Packet Length Max)" operator="lessOrEqual" value="30.5"/>
												<ScoreDistribution value="BENIGN" recordCount="0"/>
												<ScoreDistribution value="Bot" recordCount="0"/>
												<ScoreDistribution value="Brute Force" recordCount="1"/>
												<ScoreDistribution value="DDoS" recordCount="0"/>
												<ScoreDistribution value="DoS" recordCount="0"/>
												<ScoreDistribution value="Port Scan" recordCount="0"/>
												<ScoreDistribution value="Web Attack" recordCount="0"/>
											</Node>
											<Node score="BENIGN" recordCount="1">
												<SimplePredicate field="double(Bwd Packet Length Max)" operator="lessOrEqual" value="17.0"/>
												<ScoreDistribution value="BENIGN" recordCount="1"/>
												<ScoreDistribution value="Bot" recordCount="0"/>
												<ScoreDistribution value="Brute Force" recordCount="0"/>
												<ScoreDistribution value="DDoS" recordCount="0"/>
												<ScoreDistribution value="DoS" recordCount="0"/>
												<ScoreDistribution value="Port Scan" recordCount="0"/>
												<ScoreDistribution value="Web Attack" recordCount="0"/>
											</Node>
											<Node score="Brute Force" recordCount="1">
												<True/>
												<ScoreDistribution value="BENIGN" recordCount="0"/>
												<ScoreDistribution value="Bot" recordCount="0"/>
												<ScoreDistribution value="Brute Force" recordCount="1"/>
												<ScoreDistribution value="DDoS" recordCount="0"/>
												<ScoreDistribution value="DoS" recordCount="0"/>
												<ScoreDistribution value="Port Scan" recordCount="0"/>
												<ScoreDistribution value="Web Attack" recordCount="0"/>
											</Node>
										</Node>
										<Node score="DDoS" recordCount="1">
											<True/>
											<ScoreDistribution value="BENIGN" recordCount="0"/>
											<ScoreDistribution value="Bot" recordCount="0"/>
											<ScoreDistribution value="Brute Force" recordCount="0"/>
											<ScoreDistribution value="DDoS" recordCount="1"/>
											<ScoreDistribution value="DoS" recordCount="0"/>
											<ScoreDistribution value="Port Scan" recordCount="0"/>
											<ScoreDistribution value="Web Attack" recordCount="0"/>
										</Node>
									</Node>
									<Node score="BENIGN" recordCount="1">
										<SimplePredicate field="double(Packet Length Std)" operator="lessOrEqual" value="1126.6781616210938"/>
										<ScoreDistribution value="BENIGN" recordCount="1"/>
										<ScoreDistribution value="Bot" recordCount="0"/>
										<ScoreDistribution value="Brute Force" recordCount="0"/>
										<ScoreDistribution value="DDoS" recordCount="0"/>
										<ScoreDistribution value="DoS" recordCount="0"/>
										<ScoreDistribution value="Port Scan" recordCount="0"/>
										<ScoreDistribution value="Web Attack" recordCount="0"/>
									</Node>
									<Node score="DDoS" recordCount="1">
										<True/>
										<ScoreDistribution value="BENIGN" recordCount="0"/>
										<ScoreDistribution value="Bot" recordCount="0"/>
										<ScoreDistribution value="Brute Force" recordCount="0"/>
										<ScoreDistribution value="DDoS" recordCount="1"/>
										<ScoreDistribution value="DoS" recordCount="0"/>
										<ScoreDistribution value="Port Scan" recordCount="0"/>
										<ScoreDistribution value="Web Attack" recordCount="0"/>
									</Node>
								</Node>
								<Node>
									<SimplePredicate field="double(Fwd Packet Length Mean)" operator="lessOrEqual" value="89.16666793823242"/>
									<Node>
										<SimplePredicate field="double(Fwd Packet Length Max)" operator="lessOrEqual" value="223.5"/>
										<Node>
											<SimplePredicate field="double(Bwd Header Length)" operator="lessOrEqual" value="420.0"/>
											<Node>
												<SimplePredicate field="double(Packet Length Mean)" operator="lessOrEqual" value="33.07638931274414"/>
												<Node score="BENIGN" recordCount="1">
													<SimplePredicate field="double(Packet Length Mean)" operator="lessOrEqual" value="32.60317420959473"/>
													<ScoreDistribution value="BENIGN" recordCount="1"/>
													<ScoreDistribution value="Bot" recordCount="0"/>
													<ScoreDistribution value="Brute Force" recordCount="0"/>
													<ScoreDistribution value="DDoS" recordCount="0"/>
													<ScoreDistribution value="DoS" recordCount="0"/>
													<ScoreDistribution value="Port Scan" recordCount="0"/>
													<ScoreDistribution value="Web Attack" recordCount="0"/>
												</Node>
												<Node score="Port Scan" recordCount="1">
													<True/>
													<ScoreDistribution value="BENIGN" recordCount="0"/>
													<ScoreDistribution value="Bot" recordCount="0"/>
													<ScoreDistribution value="Brute Force" recordCount="0"/>
													<ScoreDistribution value="DDoS" recordCount="0"/>
													<ScoreDistribution value="DoS" recordCount="0"/>
													<ScoreDistribution value="Port Scan" recordCount="1"/>
													<ScoreDistribution value="Web Attack" recordCount="0"/>
												</Node>
											</Node>
											<Node score="BENIGN" recordCount="1">
												<True/>
												<ScoreDistribution value="BENIGN" recordCount="1"/>
												<ScoreDistribution value="Bot" recordCount="0"/>
												<ScoreDistribution value="Brute Force" recordCount="0"/>
												<ScoreDistribution value="DDoS" recordCount="0"/>
												<ScoreDistribution value="DoS" recordCount="0"/>
												<ScoreDistribution value="Port Scan" recordCount="0"/>
												<ScoreDistribution value="Web Attack" recordCount="0"/>
											</Node>
										</Node>
										<Node score="Brute Force" recordCount="1">
											<SimplePredicate field="double(Fwd Packet Length Max)" operator="lessOrEqual" value="122.5"/>
											<ScoreDistribution value="BENIGN" recordCount="0"/>
											<ScoreDistribution value="Bot" recordCount="0"/>
											<ScoreDistribution value="Brute Force" recordCount="1"/>
											<ScoreDistribution value="DDoS" recordCount="0"/>
											<ScoreDistribution value="DoS" recordCount="0"/>
											<ScoreDistribution value="Port Scan" recordCount="0"/>
											<ScoreDistribution value="Web Attack" recordCount="0"/>
										</Node>
										<Node score="BENIGN" recordCount="1">
											<True/>
											<ScoreDistribution value="BENIGN" recordCount="1"/>
											<ScoreDistribution value="Bot" recordCount="0"/>
											<ScoreDistribution value="Brute Force" recordCount="0"/>
											<ScoreDistribution value="DDoS" recordCount="0"/>
											<ScoreDistribution value="DoS" recordCount="0"/>
											<ScoreDistribution value="Port Scan" recordCount="0"/>
											<ScoreDistribution value="Web Attack" recordCount="0"/>
										</Node>
									</Node>
									<Node>
										<SimplePredicate field="double(Total Length of Fwd Packets)" operator="lessOrEqual" value="362.5"/>
										<Node>
											<SimplePredicate field="double(Average Packet Size)" operator="lessOrEqual" value="305.89286041259766"/>
											<Node score="Bot" recordCount="1">
												<SimplePredicate field="double(Fwd Packet Length Mean)" operator="lessOrEqual" value="44.456655502319336"/>
												<ScoreDistribution value="BENIGN" recordCount="0"/>
												<ScoreDistribution value="Bot" recordCount="1"/>
												<ScoreDistribution value="Brute Force" recordCount="0"/>
												<ScoreDistribution value="DDoS" recordCount="0"/>
												<ScoreDistribution value="DoS" recordCount="0"/>
												<ScoreDistribution value="Port Scan" recordCount="0"/>
												<ScoreDistribution value="Web Attack" recordCount="0"/>
											</Node>
											<Node score="DoS" recordCount="1">
												<SimplePredicate field="double(Average Packet Size)" operator="lessOrEqual" value="56.125"/>
												<ScoreDistribution value="BENIGN" recordCount="0"/>
												<ScoreDistribution value="Bot" recordCount="0"/>
												<ScoreDistribution value="Brute Force" recordCount="0"/>
												<ScoreDistribution value="DDoS" recordCount="0"/>
												<ScoreDistribution value="DoS" recordCount="1"/>
												<ScoreDistribution value="Port Scan" recordCount="0"/>
												<ScoreDistribution value="Web Attack" recordCount="0"/>
											</Node>
											<Node score="Web Attack" recordCount="1">
												<SimplePredicate field="double(Max Packet Length)" operator="lessOrEqual" value="525.0"/>
												<ScoreDistribution value="BENIGN" recordCount="0"/>
												<ScoreDistribution value="Bot" recordCount="0"/>
												<ScoreDistribution value="Brute Force" recordCount="0"/>
												<ScoreDistribution value="DDoS" recordCount="0"/>
												<ScoreDistribution value="DoS" recordCount="0"/>
												<ScoreDistribution value="Port Scan" recordCount="0"/>
												<ScoreDistribution value="Web Attack" recordCount="1"/>
											</Node>
											<Node score="BENIGN" recordCount="1">
												<True/>
												<ScoreDistribution value="BENIGN" recordCount="1"/>
												<ScoreDistribution value="Bot" recordCount="0"/>
												<ScoreDistribution value="Brute Force" recordCount="0"/>
												<ScoreDistribution value="DDoS" recordCount="0"/>
												<ScoreDistribution value="DoS" recordCount="0"/>
												<ScoreDistribution value="Port Scan" recordCount="0"/>
												<ScoreDistribution value="Web Attack" recordCount="0"/>
											</Node>
										</Node>
										<Node score="DoS" recordCount="1">
											<True/>
											<ScoreDistribution value="BENIGN" recordCount="0"/>
											<ScoreDistribution value="Bot" recordCount="0"/>
											<ScoreDistribution value="Brute Force" recordCount="0"/>
											<ScoreDistribution value="DDoS" recordCount="0"/>
											<ScoreDistribution value="DoS" recordCount="1"/>
											<ScoreDistribution value="Port Scan" recordCount="0"/>
											<ScoreDistribution value="Web Attack" recordCount="0"/>
										</Node>
									</Node>
									<Node>
										<SimplePredicate field="double(Fwd Packet Length Mean)" operator="lessOrEqual" value="87.55555725097656"/>
										<Node>
											<SimplePredicate field="double(Avg Bwd Segment Size)" operator="lessOrEqual" value="1928.1696166992188"/>
											<Node>
												<SimplePredicate field="double(Bwd Packet Length Max)" operator="lessOrEqual" value="296.0"/>
												<Node score="BENIGN" recordCount="1">
													<SimplePredicate field="double(Max Packet Length)" operator="lessOrEqual" value="342.5"/>
													<ScoreDistribution value="BENIGN" recordCount="1"/>
													<ScoreDistribution value="Bot" recordCount="0"/>
													<ScoreDistribution value="Brute Force" recordCount="0"/>
													<ScoreDistribution value="DDoS" recordCount="0"/>
													<ScoreDistribution value="DoS" recordCount="0"/>
													<ScoreDistribution value="Port Scan" recordCount="0"/>
													<ScoreDistribution value="Web Attack" recordCount="0"/>
												</Node>
												<Node score="Bot" recordCount="1">
													<True/>
													<ScoreDistribution value="BENIGN" recordCount="0"/>
													<ScoreDistribution value="Bot" recordCount="1"/>
													<ScoreDistribution value="Brute Force" recordCount="0"/>
													<ScoreDistribution value="DDoS" recordCount="0"/>
													<ScoreDistribution value="DoS" recordCount="0"/>
													<ScoreDistribution value="Port Scan" recordCount="0"/>
													<ScoreDistribution value="Web Attack" recordCount="0"/>
												</Node>
											</Node>
											<Node score="BENIGN" recordCount="1">
												<True/>
												<ScoreDistribution value="BENIGN" recordCount="1"/>
												<ScoreDistribution value="Bot" recordCount="0"/>
												<ScoreDistribution value="Brute Force" recordCount="0"/>
												<ScoreDistribution value="DDoS" recordCount="0"/>
												<ScoreDistribution value="DoS" recordCount="0"/>
												<ScoreDistribution value="Port Scan" recordCount="0"/>
												<ScoreDistribution value="Web Attack" recordCount="0"/>
											</Node>
										</Node>
										<Node score="DoS" recordCount="1">
											<True/>
											<ScoreDistribution value="BENIGN" recordCount="0"/>
											<ScoreDistribution value="Bot" recordCount="0"/>
											<ScoreDistribution value="Brute Force" recordCount="0"/>
											<ScoreDistribution value="DDoS" recordCount="0"/>
											<ScoreDistribution value="DoS" recordCount="1"/>
											<ScoreDistribution value="Port Scan" recordCount="0"/>
											<ScoreDistribution value="Web Attack" recordCount="0"/>
										</Node>
									</Node>
									<Node score="DoS" recordCount="1">
										<SimplePredicate field="double(Bwd Packet Length Mean)" operator="lessOrEqual" value="23.83333396911621"/>
										<ScoreDistribution value="BENIGN" recordCount="0"/>
										<ScoreDistribution value="Bot" recordCount="0"/>
										<ScoreDistribution value="Brute Force" recordCount="0"/>
										<ScoreDistribution value="DDoS" recordCount="0"/>
										<ScoreDistribution value="DoS" recordCount="1"/>
										<ScoreDistribution value="Port Scan" recordCount="0"/>
										<ScoreDistribution value="Web Attack" recordCount="0"/>
									</Node>
									<Node score="BENIGN" recordCount="1">
										<True/>
										<ScoreDistribution value="BENIGN" recordCount="1"/>
										<ScoreDistribution value="Bot" recordCount="0"/>
										<ScoreDistribution value="Brute Force" recordCount="0"/>
										<ScoreDistribution value="DDoS" recordCount="0"/>
										<ScoreDistribution value="DoS" recordCount="0"/>
										<ScoreDistribution value="Port Scan" recordCount="0"/>
										<ScoreDistribution value="Web Attack" recordCount="0"/>
									</Node>
								</Node>
								<Node>
									<SimplePredicate field="double(Init_Win_bytes_backward)" operator="lessOrEqual" value="232.0"/>
									<Node>
										<SimplePredicate field="double(Avg Bwd Segment Size)" operator="lessOrEqual" value="17.916666984558105"/>
										<Node>
											<SimplePredicate field="double(Bwd Packet Length Max)" operator="lessOrEqual" value="3.0"/>
											<Node>
												<SimplePredicate field="double(Fwd Packet Length Mean)" operator="lessOrEqual" value="332.25"/>
												<Node>
													<SimplePredicate field="double(Fwd Packet Length Max)" operator="lessOrEqual" value="210.0"/>
													<Node score="BENIGN" recordCount="1">
														<SimplePredicate field="double(Average Packet Size)" operator="lessOrEqual" value="228.0"/>
														<ScoreDistribution value="BENIGN" recordCount="1"/>
														<ScoreDistribution value="Bot" recordCount="0"/>
														<ScoreDistribution value="Brute Force" recordCount="0"/>
														<ScoreDistribution value="DDoS" recordCount="0"/>
														<ScoreDistribution value="DoS" recordCount="0"/>
														<ScoreDistribution value="Port Scan" recordCount="0"/>
														<ScoreDistribution value="Web Attack" recordCount="0"/>
													</Node>
													<Node score="DoS" recordCount="1">
														<True/>
														<ScoreDistribution value="BENIGN" recordCount="0"/>
														<ScoreDistribution value="Bot" recordCount="0"/>
														<ScoreDistribution value="Brute Force" recordCount="0"/>
														<ScoreDistribution value="DDoS" recordCount="0"/>
														<ScoreDistribution value="DoS" recordCount="1"/>
														<ScoreDistribution value="Port Scan" recordCount="0"/>
														<ScoreDistribution value="Web Attack" recordCount="0"/>
													</Node>
												</Node>
												<Node score="BENIGN" recordCount="1">
													<True/>
													<ScoreDistribution value="BENIGN" recordCount="1"/>
													<ScoreDistribution value="Bot" recordCount="0"/>
													<ScoreDistribution value="Brute Force" recordCount="0"/>
													<ScoreDistribution value="DDoS" recordCount="0"/>
													<ScoreDistribution value="DoS" recordCount="0"/>
													<ScoreDistribution value="Port Scan" recordCount="0"/>
													<ScoreDistribution value="Web Attack" recordCount="0"/>
												</Node>
											</Node>
											<Node score="DoS" recordCount="1">
												<SimplePredicate field="double(Fwd Packet Length Mean)" operator="lessOrEqual" value="695.75"/>
												<ScoreDistribution value="BENIGN" recordCount="0"/>
												<ScoreDistribution value="Bot" recordCount="0"/>
												<ScoreDistribution value="Brute Force" recordCount="0"/>
												<ScoreDistribution value="DDoS" recordCount="0"/>
												<ScoreDistribution value="DoS" recordCount="1"/>
												<ScoreDistribution value="Port Scan" recordCount="0"/>
												<ScoreDistribution value="Web Attack" recordCount="0"/>
											</Node>
											<Node score="BENIGN" recordCount="1">
												<True/>
												<ScoreDistribution value="BENIGN" recordCount="1"/>
												<ScoreDistribution value="Bot" recordCount="0"/>
												<ScoreDistribution value="Brute Force" recordCount="0"/>
												<ScoreDistribution value="DDoS" recordCount="0"/>
												<ScoreDistribution value="DoS" recordCount="0"/>
												<ScoreDistribution value="Port Scan" recordCount="0"/>
												<ScoreDistribution value="Web Attack" recordCount="0"/>
											</Node>
										</Node>
										<Node>
											<SimplePredicate field="double(Packet Length Std)" operator="lessOrEqual" value="482.1011199951172"/>
											<Node score="BENIGN" recordCount="1">
												<SimplePredicate field="double(Fwd Packet Length Max)" operator="lessOrEqual" value="209.0"/>
												<ScoreDistribution value="BENIGN" recordCount="1"/>
												<ScoreDistribution value="Bot" recordCount="0"/>
												<ScoreDistribution value="Brute Force" recordCount="0"/>
												<ScoreDistribution value="DDoS" recordCount="0"/>
												<ScoreDistribution value="DoS" recordCount="0"/>
												<ScoreDistribution value="Port Scan" recordCount="0"/>
												<ScoreDistribution value="Web Attack" recordCount="0"/>
											</Node>
											<Node score="BENIGN" recordCount="1">
												<SimplePredicate field="double(Fwd Packet Length Mean)" operator="lessOrEqual" value="145.25"/>
												<ScoreDistribution value="BENIGN" recordCount="1"/>
												<ScoreDistribution value="Bot" recordCount="0"/>
												<ScoreDistribution value="Brute Force" recordCount="0"/>
												<ScoreDistribution value="DDoS" recordCount="0"/>
												<ScoreDistribution value="DoS" recordCount="0"/>
												<ScoreDistribution value="Port Scan" recordCount="0"/>
												<ScoreDistribution value="Web Attack" recordCount="0"/>
											</Node>
											<Node score="DoS" recordCount="1">
												<True/>
												<ScoreDistribution value="BENIGN" recordCount="0"/>
												<ScoreDistribution value="Bot" recordCount="0"/>
												<ScoreDistribution value="Brute Force" recordCount="0"/>
												<ScoreDistribution value="DDoS" recordCount="0"/>
												<ScoreDistribution value="DoS" recordCount="1"/>
												<ScoreDistribution value="Port Scan" recordCount="0"/>
												<ScoreDistribution value="Web Attack" recordCount="0"/>
											</Node>
										</Node>
										<Node score="BENIGN" recordCount="1">
											<True/>
											<ScoreDistribution value="BENIGN" recordCount="1"/>
											<ScoreDistribution value="Bot" recordCount="0"/>
											<ScoreDistribution value="Brute Force" recordCount="0"/>
											<ScoreDistribution value="DDoS" recordCount="0"/>
											<ScoreDistribution value="DoS" recordCount="0"/>
											<ScoreDistribution value="Port Scan" recordCount="0"/>
											<ScoreDistribution value="Web Attack" recordCount="0"/>
										</Node>
									</Node>
									<Node score="BENIGN" recordCount="1">
										<True/>
										<ScoreDistribution value="BENIGN" recordCount="1"/>
										<ScoreDistribution value="Bot" recordCount="0"/>
										<ScoreDistribution value="Brute Force" recordCount="0"/>
										<ScoreDistribution value="DDoS" recordCount="0"/>
										<ScoreDistribution value="DoS" recordCount="0"/>
										<ScoreDistribution value="Port Scan" recordCount="0"/>
										<ScoreDistribution value="Web Attack" recordCount="0"/>
									</Node>
								</Node>
								<Node score="DoS" recordCount="1">
									<SimplePredicate field="double(Average Packet Size)" operator="lessOrEqual" value="85.49106979370117"/>
									<ScoreDistribution value="BENIGN" recordCount="0"/>
									<ScoreDistribution value="Bot" recordCount="0"/>
									<ScoreDistribution value="Brute Force" recordCount="0"/>
									<ScoreDistribution value="DDoS" recordCount="0"/>
									<ScoreDistribution value="DoS" recordCount="1"/>
									<ScoreDistribution value="Port Scan" recordCount="0"/>
									<ScoreDistribution value="Web Attack" recordCount="0"/>
								</Node>
								<Node score="Web Attack" recordCount="1">
									<SimplePredicate field="double(Max Packet Length)" operator="lessOrEqual" value="2049.0"/>
									<ScoreDistribution value="BENIGN" recordCount="0"/>
									<ScoreDistribution value="Bot" recordCount="0"/>
									<ScoreDistribution value="Brute Force" recordCount="0"/>
									<ScoreDistribution value="DDoS" recordCount="0"/>
									<ScoreDistribution value="DoS" recordCount="0"/>
									<ScoreDistribution value="Port Scan" recordCount="0"/>
									<ScoreDistribution value="Web Attack" recordCount="1"/>
								</Node>
								<Node score="BENIGN" recordCount="1">
									<SimplePredicate field="double(Packet Length Mean)" operator="lessOrEqual" value="339.25"/>
									<ScoreDistribution value="BENIGN" recordCount="1"/>
									<ScoreDistribution value="Bot" recordCount="0"/>
									<ScoreDistribution value="Brute Force" recordCount="0"/>
									<ScoreDistribution value="DDoS" recordCount="0"/>
									<ScoreDistribution value="DoS" recordCount="0"/>
									<ScoreDistribution value="Port Scan" recordCount="0"/>
									<ScoreDistribution value="Web Attack" recordCount="0"/>
								</Node>
								<Node score="DoS" recordCount="1">
									<SimplePredicate field="double(Packet Length Std)" operator="lessOrEqual" value="812.7196350097656"/>
									<ScoreDistribution value="BENIGN" recordCount="0"/>
									<ScoreDistribution value="Bot" recordCount="0"/>
									<ScoreDistribution value="Brute Force" recordCount="0"/>
									<ScoreDistribution value="DDoS" recordCount="0"/>
									<ScoreDistribution value="DoS" recordCount="1"/>
									<ScoreDistribution value="Port Scan" recordCount="0"/>
									<ScoreDistribution value="Web Attack" recordCount="0"/>
								</Node>
								<Node score="Web Attack" recordCount="1">
									<SimplePredicate field="double(Packet Length Std)" operator="lessOrEqual" value="1123.4354553222656"/>
									<ScoreDistribution value="BENIGN" recordCount="0"/>
									<ScoreDistribution value="Bot" recordCount="0"/>
									<ScoreDistribution value="Brute Force" recordCount="0"/>
									<ScoreDistribution value="DDoS" recordCount="0"/>
									<ScoreDistribution value="DoS" recordCount="0"/>
									<ScoreDistribution value="Port Scan" recordCount="0"/>
									<ScoreDistribution value="Web Attack" recordCount="1"/>
								</Node>
								<Node score="DoS" recordCount="1">
									<True/>
									<ScoreDistribution value="BENIGN" recordCount="0"/>
									<ScoreDistribution value="Bot" recordCount="0"/>
									<ScoreDistribution value="Brute Force" recordCount="0"/>
									<ScoreDistribution value="DDoS" recordCount="0"/>
									<ScoreDistribution value="DoS" recordCount="1"/>
									<ScoreDistribution value="Port Scan" recordCount="0"/>
									<ScoreDistribution value="Web Attack" recordCount="0"/>
								</Node>
							</Node>
							<Node>
								<SimplePredicate field="double(Bwd Header Length)" operator="lessOrEqual" value="98.5"/>
								<Node>
									<SimplePredicate field="double(Bwd Packet Length Max)" operator="lessOrEqual" value="5.0"/>
									<Node>
										<SimplePredicate field="double(Bwd Packet Length Mean)" operator="lessOrEqual" value="1.0"/>
										<Node score="BENIGN" recordCount="1">
											<SimplePredicate field="double(Total Length of Fwd Packets)" operator="lessOrEqual" value="1148.5"/>
											<ScoreDistribution value="BENIGN" recordCount="1"/>
											<ScoreDistribution value="Bot" recordCount="0"/>
											<ScoreDistribution value="Brute Force" recordCount="0"/>
											<ScoreDistribution value="DDoS" recordCount="0"/>
											<ScoreDistribution value="DoS" recordCount="0"/>
											<ScoreDistribution value="Port Scan" recordCount="0"/>
											<ScoreDistribution value="Web Attack" recordCount="0"/>
										</Node>
										<Node score="DoS" recordCount="1">
											<True/>
											<ScoreDistribution value="BENIGN" recordCount="0"/>
											<ScoreDistribution value="Bot" recordCount="0"/>
											<ScoreDistribution value="Brute Force" recordCount="0"/>
											<ScoreDistribution value="DDoS" recordCount="0"/>
											<ScoreDistribution value="DoS" recordCount="1"/>
											<ScoreDistribution value="Port Scan" recordCount="0"/>
											<ScoreDistribution value="Web Attack" recordCount="0"/>
										</Node>
									</Node>
									<Node score="BENIGN" recordCount="1">
										<SimplePredicate field="double(Init_Win_bytes_backward)" operator="lessOrEqual" value="15112.0"/>
										<ScoreDistribution value="BENIGN" recordCount="1"/>
										<ScoreDistribution value="Bot" recordCount="0"/>
										<ScoreDistribution value="Brute Force" recordCount="0"/>
										<ScoreDistribution value="DDoS" recordCount="0"/>
										<ScoreDistribution value="DoS" recordCount="0"/>
										<ScoreDistribution value="Port Scan" recordCount="0"/>
										<ScoreDistribution value="Web Attack" recordCount="0"/>
									</Node>
									<Node score="Port Scan" recordCount="1">
										<True/>
										<ScoreDistribution value="BENIGN" recordCount="0"/>
										<ScoreDistribution value="Bot" recordCount="0"/>
										<ScoreDistribution value="Brute Force" recordCount="0"/>
										<ScoreDistribution value="DDoS" recordCount="0"/>
										<ScoreDistribution value="DoS" recordCount="0"/>
										<ScoreDistribution value="Port Scan" recordCount="1"/>
										<ScoreDistribution value="Web Attack" recordCount="0"/>
									</Node>
								</Node>
								<Node>
									<SimplePredicate field="double(Bwd Header Length)" operator="lessOrEqual" value="68.0"/>
									<Node>
										<SimplePredicate field="double(Bwd Header Length)" operator="lessOrEqual" value="30.0"/>
										<Node>
											<SimplePredicate field="double(Avg Bwd Segment Size)" operator="lessOrEqual" value="26.0"/>
											<Node score="BENIGN" recordCount="1">
												<SimplePredicate field="double(Average Packet Size)" operator="lessOrEqual" value="8.5"/>
												<ScoreDistribution value="BENIGN" recordCount="1"/>
												<ScoreDistribution value="Bot" recordCount="0"/>
												<ScoreDistribution value="Brute Force" recordCount="0"/>
												<ScoreDistribution value="DDoS" recordCount="0"/>
												<ScoreDistribution value="DoS" recordCount="0"/>
												<ScoreDistribution value="Port Scan" recordCount="0"/>
												<ScoreDistribution value="Web Attack" recordCount="0"/>
											</Node>
											<Node>
												<SimplePredicate field="double(Init_Win_bytes_backward)" operator="lessOrEqual" value="16398.5"/>
												<Node>
													<SimplePredicate field="double(Init_Win_bytes_backward)" operator="lessOrEqual" value="255.5"/>
													<Node score="Bot" recordCount="1">
														<SimplePredicate field="double(Init_Win_bytes_backward)" operator="lessOrEqual" value="241.0"/>
														<ScoreDistribution value="BENIGN" recordCount="0"/>
														<ScoreDistribution value="Bot" recordCount="1"/>
														<ScoreDistribution value="Brute Force" recordCount="0"/>
														<ScoreDistribution value="DDoS" recordCount="0"/>
														<ScoreDistribution value="DoS" recordCount="0"/>
														<ScoreDistribution value="Port Scan" recordCount="0"/>
														<ScoreDistribution value="Web Attack" recordCount="0"/>
													</Node>
													<Node score="BENIGN" recordCount="1">
														<True/>
														<ScoreDistribution value="BENIGN" recordCount="1"/>
														<ScoreDistribution value="Bot" recordCount="0"/>
														<ScoreDistribution value="Brute Force" recordCount="0"/>
														<ScoreDistribution value="DDoS" recordCount="0"/>
														<ScoreDistribution value="DoS" recordCount="0"/>
														<ScoreDistribution value="Port Scan" recordCount="0"/>
														<ScoreDistribution value="Web Attack" recordCount="0"/>
													</Node>
												</Node>
												<Node score="Bot" recordCount="1">
													<SimplePredicate field="double(Init_Win_bytes_backward)" operator="lessOrEqual" value="256.5"/>
													<ScoreDistribution value="BENIGN" recordCount="0.029209621993127148"/>
													<ScoreDistribution value="Bot" recordCount="0.9707903780068728"/>
													<ScoreDistribution value="Brute Force" recordCount="0"/>
													<ScoreDistribution value="DDoS" recordCount="0"/>
													<ScoreDistribution value="DoS" recordCount="0"/>
													<ScoreDistribution value="Port Scan" recordCount="0"/>
													<ScoreDistribution value="Web Attack" recordCount="0"/>
												</Node>
												<Node>
													<SimplePredicate field="double(Init_Win_bytes_backward)" operator="lessOrEqual" value="16381.5"/>
													<Node score="BENIGN" recordCount="1">
														<SimplePredicate field="double(Init_Win_bytes_backward)" operator="lessOrEqual" value="1008.5"/>
														<ScoreDistribution value="BENIGN" recordCount="1"/>
														<ScoreDistribution value="Bot" recordCount="0"/>
														<ScoreDistribution value="Brute Force" recordCount="0"/>
														<ScoreDistribution value="DDoS" recordCount="0"/>
														<ScoreDistribution value="DoS" recordCount="0"/>
														<ScoreDistribution value="Port Scan" recordCount="0"/>
														<ScoreDistribution value="Web Attack" recordCount="0"/>
													</Node>
													<Node score="Bot" recordCount="1">
														<SimplePredicate field="double(Init_Win_bytes_backward)" operator="lessOrEqual" value="1460.5"/>
														<ScoreDistribution value="BENIGN" recordCount="0"/>
														<ScoreDistribution value="Bot" recordCount="1"/>
														<ScoreDistribution value="Brute Force" recordCount="0"/>
														<ScoreDistribution value="DDoS" recordCount="0"/>
														<ScoreDistribution value="DoS" recordCount="0"/>
														<ScoreDistribution value="Port Scan" recordCount="0"/>
														<ScoreDistribution value="Web Attack" recordCount="0"/>
													</Node>
													<Node score="BENIGN" recordCount="1">
														<True/>
														<ScoreDistribution value="BENIGN" recordCount="1"/>
														<ScoreDistribution value="Bot" recordCount="0"/>
														<ScoreDistribution value="Brute Force" recordCount="0"/>
														<ScoreDistribution value="DDoS" recordCount="0"/>
														<ScoreDistribution value="DoS" recordCount="0"/>
														<ScoreDistribution value="Port Scan" recordCount="0"/>
														<ScoreDistribution value="Web Attack" recordCount="0"/>
													</Node>
												</Node>
												<Node score="Bot" recordCount="1">
													<True/>
													<ScoreDistribution value="BENIGN" recordCount="0"/>
													<ScoreDistribution value="Bot" recordCount="1"/>
													<ScoreDistribution value="Brute Force" recordCount="0"/>
													<ScoreDistribution value="DDoS" recordCount="0"/>
													<ScoreDistribution value="DoS" recordCount="0"/>
													<ScoreDistribution value="Port Scan" recordCount="0"/>
													<ScoreDistribution value="Web Attack" recordCount="0"/>
												</Node>
											</Node>
											<Node score="BENIGN" recordCount="1">
												<True/>
												<ScoreDistribution value="BENIGN" recordCount="1"/>
												<ScoreDistribution value="Bot" recordCount="0"/>
												<ScoreDistribution value="Brute Force" recordCount="0"/>
												<ScoreDistribution value="DDoS" recordCount="0"/>
												<ScoreDistribution value="DoS" recordCount="0"/>
												<ScoreDistribution value="Port Scan" recordCount="0"/>
												<ScoreDistribution value="Web Attack" recordCount="0"/>
											</Node>
										</Node>
										<Node score="BENIGN" recordCount="1">
											<True/>
											<ScoreDistribution value="BENIGN" recordCount="1"/>
											<ScoreDistribution value="Bot" recordCount="0"/>
											<ScoreDistribution value="Brute Force" recordCount="0"/>
											<ScoreDistribution value="DDoS" recordCount="0"/>
											<ScoreDistribution value="DoS" recordCount="0"/>
											<ScoreDistribution value="Port Scan" recordCount="0"/>
											<ScoreDistribution value="Web Attack" recordCount="0"/>
										</Node>
									</Node>
									<Node score="BENIGN" recordCount="1">
										<True/>
										<ScoreDistribution value="BENIGN" recordCount="1"/>
										<ScoreDistribution value="Bot" recordCount="0"/>
										<ScoreDistribution value="Brute Force" recordCount="0"/>
										<ScoreDistribution value="DDoS" recordCount="0"/>
										<ScoreDistribution value="DoS" recordCount="0"/>
										<ScoreDistribution value="Port Scan" recordCount="0"/>
										<ScoreDistribution value="Web Attack" recordCount="0"/>
									</Node>
								</Node>
								<Node>
									<SimplePredicate field="double(Init_Win_bytes_backward)" operator="lessOrEqual" value="408.0"/>
									<Node score="BENIGN" recordCount="1">
										<SimplePredicate field="double(Packet Length Std)" operator="lessOrEqual" value="45.05176067352295"/>
										<ScoreDistribution value="BENIGN" recordCount="1"/>
										<ScoreDistribution value="Bot" recordCount="0"/>
										<ScoreDistribution value="Brute Force" recordCount="0"/>
										<ScoreDistribution value="DDoS" recordCount="0"/>
										<ScoreDistribution value="DoS" recordCount="0"/>
										<ScoreDistribution value="Port Scan" recordCount="0"/>
										<ScoreDistribution value="Web Attack" recordCount="0"/>
									</Node>
									<Node score="Bot" recordCount="1">
										<SimplePredicate field="double(Total Length of Fwd Packets)" operator="lessOrEqual" value="7841.0"/>
										<ScoreDistribution value="BENIGN" recordCount="0"/>
										<ScoreDistribution value="Bot" recordCount="1"/>
										<ScoreDistribution value="Brute Force" recordCount="0"/>
										<ScoreDistribution value="DDoS" recordCount="0"/>
										<ScoreDistribution value="DoS" recordCount="0"/>
										<ScoreDistribution value="Port Scan" recordCount="0"/>
										<ScoreDistribution value="Web Attack" recordCount="0"/>
									</Node>
									<Node score="BENIGN" recordCount="1">
										<True/>
										<ScoreDistribution value="BENIGN" recordCount="1"/>
										<ScoreDistribution value="Bot" recordCount="0"/>
										<ScoreDistribution value="Brute Force" recordCount="0"/>
										<ScoreDistribution value="DDoS" recordCount="0"/>
										<ScoreDistribution value="DoS" recordCount="0"/>
										<ScoreDistribution value="Port Scan" recordCount="0"/>
										<ScoreDistribution value="Web Attack" recordCount="0"/>
									</Node>
								</Node>
								<Node score="BENIGN" recordCount="1">
									<True/>
									<ScoreDistribution value="BENIGN" recordCount="1"/>
									<ScoreDistribution value="Bot" recordCount="0"/>
									<ScoreDistribution value="Brute Force" recordCount="0"/>
									<ScoreDistribution value="DDoS" recordCount="0"/>
									<ScoreDistribution value="DoS" recordCount="0"/>
									<ScoreDistribution value="Port Scan" recordCount="0"/>
									<ScoreDistribution value="Web Attack" recordCount="0"/>
								</Node>
							</Node>
							<Node>
								<SimplePredicate field="double(Fwd Packet Length Max)" operator="lessOrEqual" value="639.5"/>
								<Node>
									<SimplePredicate field="double(Total Length of Fwd Packets)" operator="lessOrEqual" value="25186.0"/>
									<Node>
										<SimplePredicate field="double(Subflow Fwd Bytes)" operator="lessOrEqual" value="66.5"/>
										<Node score="DoS" recordCount="1">
											<SimplePredicate field="double(Bwd Header Length)" operator="lessOrEqual" value="114.0"/>
											<ScoreDistribution value="BENIGN" recordCount="0"/>
											<ScoreDistribution value="Bot" recordCount="0"/>
											<ScoreDistribution value="Brute Force" recordCount="0"/>
											<ScoreDistribution value="DDoS" recordCount="0"/>
											<ScoreDistribution value="DoS" recordCount="1"/>
											<ScoreDistribution value="Port Scan" recordCount="0"/>
											<ScoreDistribution value="Web Attack" recordCount="0"/>
										</Node>
										<Node score="BENIGN" recordCount="1">
											<True/>
											<ScoreDistribution value="BENIGN" recordCount="1"/>
											<ScoreDistribution value="Bot" recordCount="0"/>
											<ScoreDistribution value="Brute Force" recordCount="0"/>
											<ScoreDistribution value="DDoS" recordCount="0"/>
											<ScoreDistribution value="DoS" recordCount="0"/>
											<ScoreDistribution value="Port Scan" recordCount="0"/>
											<ScoreDistribution value="Web Attack" recordCount="0"/>
										</Node>
									</Node>
									<Node>
										<SimplePredicate field="double(Bwd Packet Length Max)" operator="lessOrEqual" value="1066.5"/>
										<Node score="BENIGN" recordCount="1">
											<SimplePredicate field="double(Bwd Packet Length Mean)" operator="lessOrEqual" value="285.5"/>
											<ScoreDistribution value="BENIGN" recordCount="1"/>
											<ScoreDistribution value="Bot" recordCount="0"/>
											<ScoreDistribution value="Brute Force" recordCount="0"/>
											<ScoreDistribution value="DDoS" recordCount="0"/>
											<ScoreDistribution value="DoS" recordCount="0"/>
											<ScoreDistribution value="Port Scan" recordCount="0"/>
											<ScoreDistribution value="Web Attack" recordCount="0"/>
										</Node>
										<Node score="Web Attack" recordCount="1">
											<SimplePredicate field="double(Bwd Packet Length Mean)" operator="lessOrEqual" value="418.702392578125"/>
											<ScoreDistribution value="BENIGN" recordCount="0"/>
											<ScoreDistribution value="Bot" recordCount="0"/>
											<ScoreDistribution value="Brute Force" recordCount="0"/>
											<ScoreDistribution value="DDoS" recordCount="0"/>
											<ScoreDistribution value="DoS" recordCount="0"/>
											<ScoreDistribution value="Port Scan" recordCount="0"/>
											<ScoreDistribution value="Web Attack" recordCount="1"/>
										</Node>
										<Node score="BENIGN" recordCount="1">
											<True/>
											<ScoreDistribution value="BENIGN" recordCount="1"/>
											<ScoreDistribution value="Bot" recordCount="0"/>
											<ScoreDistribution value="Brute Force" recordCount="0"/>
											<ScoreDistribution value="DDoS" recordCount="0"/>
											<ScoreDistribution value="DoS" recordCount="0"/>
											<ScoreDistribution value="Port Scan" recordCount="0"/>
											<ScoreDistribution value="Web Attack" recordCount="0"/>
										</Node>
									</Node>
									<Node score="BENIGN" recordCount="1">
										<True/>
										<ScoreDistribution value="BENIGN" recordCount="1"/>
										<ScoreDistribution value="Bot" recordCount="0"/>
										<ScoreDistribution value="Brute Force" recordCount="0"/>
										<ScoreDistribution value="DDoS" recordCount="0"/>
										<ScoreDistribution value="DoS" recordCount="0"/>
										<ScoreDistribution value="Port Scan" recordCount="0"/>
										<ScoreDistribution value="Web Attack" recordCount="0"/>
									</Node>
								</Node>
								<Node score="Web Attack" recordCount="1">
									<True/>
									<ScoreDistribution value="BENIGN" recordCount="0"/>
									<ScoreDistribution value="Bot" recordCount="0"/>
									<ScoreDistribution value="Brute Force" recordCount="0"/>
									<ScoreDistribution value="DDoS" recordCount="0"/>
									<ScoreDistribution value="DoS" recordCount="0"/>
									<ScoreDistribution value="Port Scan" recordCount="0"/>
									<ScoreDistribution value="Web Attack" recordCount="1"/>
								</Node>
							</Node>
							<Node>
								<SimplePredicate field="double(Max Packet Length)" operator="lessOrEqual" value="994.5"/>
								<Node score="BENIGN" recordCount="1">
									<SimplePredicate field="double(Bwd Packet Length Max)" operator="lessOrEqual" value="915.5"/>
									<ScoreDistribution value="BENIGN" recordCount="1"/>
									<ScoreDistribution value="Bot" recordCount="0"/>
									<ScoreDistribution value="Brute Force" recordCount="0"/>
									<ScoreDistribution value="DDoS" recordCount="0"/>
									<ScoreDistribution value="DoS" recordCount="0"/>
									<ScoreDistribution value="Port Scan" recordCount="0"/>
									<ScoreDistribution value="Web Attack" recordCount="0"/>
								</Node>
								<Node score="Brute Force" recordCount="1">
									<True/>
									<ScoreDistribution value="BENIGN" recordCount="0"/>
									<ScoreDistribution value="Bot" recordCount="0"/>
									<ScoreDistribution value="Brute Force" recordCount="1"/>
									<ScoreDistribution value="DDoS" recordCount="0"/>
									<ScoreDistribution value="DoS" recordCount="0"/>
									<ScoreDistribution value="Port Scan" recordCount="0"/>
									<ScoreDistribution value="Web Attack" recordCount="0"/>
								</Node>
							</Node>
							<Node>
								<SimplePredicate field="double(Average Packet Size)" operator="lessOrEqual" value="1041.2227172851562"/>
								<Node>
									<SimplePredicate field="double(Average Packet Size)" operator="lessOrEqual" value="144.93992614746094"/>
									<Node>
										<SimplePredicate field="double(Avg Bwd Segment Size)" operator="lessOrEqual" value="168.05555725097656"/>
										<Node score="BENIGN" recordCount="1">
											<SimplePredicate field="double(Fwd Packet Length Mean)" operator="lessOrEqual" value="120.98571395874023"/>
											<ScoreDistribution value="BENIGN" recordCount="1"/>
											<ScoreDistribution value="Bot" recordCount="0"/>
											<ScoreDistribution value="Brute Force" recordCount="0"/>
											<ScoreDistribution value="DDoS" recordCount="0"/>
											<ScoreDistribution value="DoS" recordCount="0"/>
											<ScoreDistribution value="Port Scan" recordCount="0"/>
											<ScoreDistribution value="Web Attack" recordCount="0"/>
										</Node>
										<Node score="Brute Force" recordCount="1">
											<SimplePredicate field="double(Fwd Packet Length Mean)" operator="lessOrEqual" value="124.38571166992188"/>
											<ScoreDistribution value="BENIGN" recordCount="0"/>
											<ScoreDistribution value="Bot" recordCount="0"/>
											<ScoreDistribution value="Brute Force" recordCount="1"/>
											<ScoreDistribution value="DDoS" recordCount="0"/>
											<ScoreDistribution value="DoS" recordCount="0"/>
											<ScoreDistribution value="Port Scan" recordCount="0"/>
											<ScoreDistribution value="Web Attack" recordCount="0"/>
										</Node>
										<Node score="BENIGN" recordCount="1">
											<True/>
											<ScoreDistribution value="BENIGN" recordCount="1"/>
											<ScoreDistribution value="Bot" recordCount="0"/>
											<ScoreDistribution value="Brute Force" recordCount="0"/>
											<ScoreDistribution value="DDoS" recordCount="0"/>
											<ScoreDistribution value="DoS" recordCount="0"/>
											<ScoreDistribution value="Port Scan" recordCount="0"/>
											<ScoreDistribution value="Web Attack" recordCount="0"/>
										</Node>
									</Node>
									<Node score="Brute Force" recordCount="1">
										<True/>
										<ScoreDistribution value="BENIGN" recordCount="0"/>
										<ScoreDistribution value="Bot" recordCount="0"/>
										<ScoreDistribution value="Brute Force" recordCount="1"/>
										<ScoreDistribution value="DDoS" recordCount="0"/>
										<ScoreDistribution value="DoS" recordCount="0"/>
										<ScoreDistribution value="Port Scan" recordCount="0"/>
										<ScoreDistribution value="Web Attack" recordCount="0"/>
									</Node>
								</Node>
								<Node score="BENIGN" recordCount="1">
									<SimplePredicate field="double(Average Packet Size)" operator="lessOrEqual" value="980.5679321289062"/>
									<ScoreDistribution value="BENIGN" recordCount="1"/>
									<ScoreDistribution value="Bot" recordCount="0"/>
									<ScoreDistribution value="Brute Force" recordCount="0"/>
									<ScoreDistribution value="DDoS" recordCount="0"/>
									<ScoreDistribution value="DoS" recordCount="0"/>
									<ScoreDistribution value="Port Scan" recordCount="0"/>
									<ScoreDistribution value="Web Attack" recordCount="0"/>
								</Node>
								<Node score="BENIGN" recordCount="1">
									<SimplePredicate field="double(Bwd Packet Length Max)" operator="lessOrEqual" value="74.0"/>
									<ScoreDistribution value="BENIGN" recordCount="1"/>
									<ScoreDistribution value="Bot" recordCount="0"/>
									<ScoreDistribution value="Brute Force" recordCount="0"/>
									<ScoreDistribution value="DDoS" recordCount="0"/>
									<ScoreDistribution value="DoS" recordCount="0"/>
									<ScoreDistribution value="Port Scan" recordCount="0"/>
									<ScoreDistribution value="Web Attack" recordCount="0"/>
								</Node>
								<Node score="Bot" recordCount="1">
									<True/>
									<ScoreDistribution value="BENIGN" recordCount="0"/>
									<ScoreDistribution value="Bot" recordCount="1"/>
									<ScoreDistribution value="Brute Force" recordCount="0"/>
									<ScoreDistribution value="DDoS" recordCount="0"/>
									<ScoreDistribution value="DoS" recordCount="0"/>
									<ScoreDistribution value="Port Scan" recordCount="0"/>
									<ScoreDistribution value="Web Attack" recordCount="0"/>
								</Node>
							</Node>
							<Node score="Bot" recordCount="1">
								<SimplePredicate field="double(Bwd Packet Length Max)" operator="lessOrEqual" value="258.5"/>
								<ScoreDistribution value="BENIGN" recordCount="0"/>
								<ScoreDistribution value="Bot" recordCount="1"/>
								<ScoreDistribution value="Brute Force" recordCount="0"/>
								<ScoreDistribution value="DDoS" recordCount="0"/>
								<ScoreDistribution value="DoS" recordCount="0"/>
								<ScoreDistribution value="Port Scan" recordCount="0"/>
								<ScoreDistribution value="Web Attack" recordCount="0"/>
							</Node>
							<Node score="BENIGN" recordCount="1">
								<True/>
								<ScoreDistribution value="BENIGN" recordCount="1"/>
								<ScoreDistribution value="Bot" recordCount="0"/>
								<ScoreDistribution value="Brute Force" recordCount="0"/>
								<ScoreDistribution value="DDoS" recordCount="0"/>
								<ScoreDistribution value="DoS" recordCount="0"/>
								<ScoreDistribution value="Port Scan" recordCount="0"/>
								<ScoreDistribution value="Web Attack" recordCount="0"/>
							</Node>
						</Node>
						<Node>
							<SimplePredicate field="double(Total Length of Fwd Packets)" operator="lessOrEqual" value="143.0"/>
							<Node>
								<SimplePredicate field="double(Fwd Packet Length Max)" operator="lessOrEqual" value="41.0"/>
								<Node score="Port Scan" recordCount="1">
									<SimplePredicate field="double(Fwd Packet Length Mean)" operator="lessOrEqual" value="6.25"/>
									<ScoreDistribution value="BENIGN" recordCount="0"/>
									<ScoreDistribution value="Bot" recordCount="0"/>
									<ScoreDistribution value="Brute Force" recordCount="0"/>
									<ScoreDistribution value="DDoS" recordCount="0"/>
									<ScoreDistribution value="DoS" recordCount="0"/>
									<ScoreDistribution value="Port Scan" recordCount="1"/>
									<ScoreDistribution value="Web Attack" recordCount="0"/>
								</Node>
								<Node score="DDoS" recordCount="1">
									<True/>
									<ScoreDistribution value="BENIGN" recordCount="0"/>
									<ScoreDistribution value="Bot" recordCount="0"/>
									<ScoreDistribution value="Brute Force" recordCount="0"/>
									<ScoreDistribution value="DDoS" recordCount="1"/>
									<ScoreDistribution value="DoS" recordCount="0"/>
									<ScoreDistribution value="Port Scan" recordCount="0"/>
									<ScoreDistribution value="Web Attack" recordCount="0"/>
								</Node>
							</Node>
							<Node score="Port Scan" recordCount="1">
								<True/>
								<ScoreDistribution value="BENIGN" recordCount="0"/>
								<ScoreDistribution value="Bot" recordCount="0"/>
								<ScoreDistribution value="Brute Force" recordCount="0"/>
								<ScoreDistribution value="DDoS" recordCount="0"/>
								<ScoreDistribution value="DoS" recordCount="0"/>
								<ScoreDistribution value="Port Scan" recordCount="1"/>
								<ScoreDistribution value="Web Attack" recordCount="0"/>
							</Node>
						</Node>
						<Node>
							<SimplePredicate field="double(Packet Length Std)" operator="lessOrEqual" value="1231.0877075195312"/>
							<Node>
								<SimplePredicate field="double(Bwd Packet Length Mean)" operator="lessOrEqual" value="886.3958435058594"/>
								<Node>
									<SimplePredicate field="double(Packet Length Std)" operator="lessOrEqual" value="956.7962341308594"/>
									<Node score="Web Attack" recordCount="1">
										<SimplePredicate field="double(Packet Length Std)" operator="lessOrEqual" value="560.9456481933594"/>
										<ScoreDistribution value="BENIGN" recordCount="0"/>
										<ScoreDistribution value="Bot" recordCount="0"/>
										<ScoreDistribution value="Brute Force" recordCount="0"/>
										<ScoreDistribution value="DDoS" recordCount="0"/>
										<ScoreDistribution value="DoS" recordCount="0"/>
										<ScoreDistribution value="Port Scan" recordCount="0"/>
										<ScoreDistribution value="Web Attack" recordCount="1"/>
									</Node>
									<Node score="BENIGN" recordCount="1">
										<SimplePredicate field="double(Avg Fwd Segment Size)" operator="lessOrEqual" value="163.27777862548828"/>
										<ScoreDistribution value="BENIGN" recordCount="1"/>
										<ScoreDistribution value="Bot" recordCount="0"/>
										<ScoreDistribution value="Brute Force" recordCount="0"/>
										<ScoreDistribution value="DDoS" recordCount="0"/>
										<ScoreDistribution value="DoS" recordCount="0"/>
										<ScoreDistribution value="Port Scan" recordCount="0"/>
										<ScoreDistribution value="Web Attack" recordCount="0"/>
									</Node>
									<Node score="DoS" recordCount="1">
										<True/>
										<ScoreDistribution value="BENIGN" recordCount="0"/>
